FANN_FLO_2.1
num_layers=3
learning_rate=0.700000
connection_rate=1.000000
network_type=0
learning_momentum=0.000000
training_algorithm=2
train_error_function=1
train_stop_function=1
cascade_output_change_fraction=0.010000
quickprop_decay=-0.000100
quickprop_mu=1.750000
rprop_increase_factor=1.200000
rprop_decrease_factor=0.500000
rprop_delta_min=0.000000
rprop_delta_max=50.000000
rprop_delta_zero=0.100000
cascade_output_stagnation_epochs=12
cascade_candidate_change_fraction=0.010000
cascade_candidate_stagnation_epochs=12
cascade_max_out_epochs=150
cascade_max_cand_epochs=150
cascade_num_candidate_groups=2
bit_fail_limit=9.99999977648258209229e-03
cascade_candidate_limit=1.00000000000000000000e+03
cascade_weight_multiplier=4.00000005960464477539e-01
cascade_activation_functions_count=10
cascade_activation_functions=3 5 7 8 10 11 14 15 16 17 
cascade_activation_steepnesses_count=4
cascade_activation_steepnesses=2.50000000000000000000e-01 5.00000000000000000000e-01 7.50000000000000000000e-01 1.00000000000000000000e+00 
layer_sizes=7 4 5 
scale_included=0
neurons (num_inputs, activation_function, activation_steepness)=(0, 0, 0.00000000000000000000e+00) (0, 0, 0.00000000000000000000e+00) (0, 0, 0.00000000000000000000e+00) (0, 0, 0.00000000000000000000e+00) (0, 0, 0.00000000000000000000e+00) (0, 0, 0.00000000000000000000e+00) (0, 0, 0.00000000000000000000e+00) (7, 3, 1.00000000000000000000e+00) (7, 3, 1.00000000000000000000e+00) (7, 3, 1.00000000000000000000e+00) (0, 3, 1.00000000000000000000e+00) (4, 3, 1.00000000000000000000e+00) (4, 3, 1.00000000000000000000e+00) (4, 3, 1.00000000000000000000e+00) (4, 3, 1.00000000000000000000e+00) (0, 3, 1.00000000000000000000e+00) 
connections (connected_to_neuron, weight)=(0, -3.82458686828613281250e+00) (1, 3.25892677307128906250e+01) (2, 3.27965698242187500000e+01) (3, 9.71272736787796020508e-02) (4, 9.95056390762329101562e-01) (5, 1.70116317272186279297e+00) (6, 2.15056434273719787598e-01) (0, 6.72417581081390380859e-01) (1, -1.50000000000000000000e+03) (2, -1.50000000000000000000e+03) (3, 1.88762709498405456543e-01) (4, -8.18652033805847167969e-01) (5, -2.06308692693710327148e-01) (6, -5.62987804412841796875e-01) (0, -1.10067663574218750000e+03) (1, 3.17389888763427734375e+01) (2, 3.26888771057128906250e+01) (3, 5.69981448352336883545e-02) (4, -1.54093322753906250000e+02) (5, -1.02421508789062500000e+03) (6, -2.82462269067764282227e-01) (7, -1.44385204315185546875e+01) (8, 1.68530440330505371094e+00) (9, 5.50000000000000000000e+02) (10, 1.94874620437622070312e+00) (7, 1.39618186950683593750e+01) (8, 1.42338485717773437500e+01) (9, 1.50000000000000000000e+03) (10, 1.40508804321289062500e+01) (7, 2.85856838226318359375e+01) (8, -2.45503196716308593750e+01) (9, 1.50000000000000000000e+03) (10, -2.64436691999435424805e-01) (7, 2.55289516448974609375e+01) (8, -1.78377189636230468750e+01) (9, 1.50000000000000000000e+03) (10, -3.06813430786132812500e+00) 
