FANN_FLO_2.1
num_layers=3
learning_rate=0.100000
connection_rate=1.000000
network_type=0
learning_momentum=0.300000
training_algorithm=0
train_error_function=1
train_stop_function=1
cascade_output_change_fraction=0.010000
quickprop_decay=-0.000100
quickprop_mu=1.750000
rprop_increase_factor=1.200000
rprop_decrease_factor=0.500000
rprop_delta_min=0.000000
rprop_delta_max=50.000000
rprop_delta_zero=0.100000
cascade_output_stagnation_epochs=12
cascade_candidate_change_fraction=0.010000
cascade_candidate_stagnation_epochs=12
cascade_max_out_epochs=150
cascade_max_cand_epochs=150
cascade_num_candidate_groups=2
bit_fail_limit=9.99999977648258209229e-03
cascade_candidate_limit=1.00000000000000000000e+03
cascade_weight_multiplier=4.00000005960464477539e-01
cascade_activation_functions_count=10
cascade_activation_functions=3 5 7 8 10 11 14 15 16 17 
cascade_activation_steepnesses_count=4
cascade_activation_steepnesses=2.50000000000000000000e-01 5.00000000000000000000e-01 7.50000000000000000000e-01 1.00000000000000000000e+00 
layer_sizes=7 12 5 
scale_included=0
neurons (num_inputs, activation_function, activation_steepness)=(0, 0, 0.00000000000000000000e+00) (0, 0, 0.00000000000000000000e+00) (0, 0, 0.00000000000000000000e+00) (0, 0, 0.00000000000000000000e+00) (0, 0, 0.00000000000000000000e+00) (0, 0, 0.00000000000000000000e+00) (0, 0, 0.00000000000000000000e+00) (7, 3, 1.00000000000000000000e+00) (7, 3, 1.00000000000000000000e+00) (7, 3, 1.00000000000000000000e+00) (7, 3, 1.00000000000000000000e+00) (7, 3, 1.00000000000000000000e+00) (7, 3, 1.00000000000000000000e+00) (7, 3, 1.00000000000000000000e+00) (7, 3, 1.00000000000000000000e+00) (7, 3, 1.00000000000000000000e+00) (7, 3, 1.00000000000000000000e+00) (7, 3, 1.00000000000000000000e+00) (0, 3, 1.00000000000000000000e+00) (12, 3, 1.00000000000000000000e+00) (12, 3, 1.00000000000000000000e+00) (12, 3, 1.00000000000000000000e+00) (12, 3, 1.00000000000000000000e+00) (0, 3, 1.00000000000000000000e+00) 
connections (connected_to_neuron, weight)=(0, 5.39814281463623046875e+00) (1, -2.71539497375488281250e+00) (2, 2.15282368659973144531e+00) (3, -6.35602355003356933594e-01) (4, -1.52344775199890136719e+00) (5, 2.59223937988281250000e-01) (6, -4.04049682617187500000e+00) (0, 7.72179841995239257812e+00) (1, -1.55539369583129882812e+00) (2, -2.15801644325256347656e+00) (3, 5.38875532150268554688e+00) (4, -3.18670940399169921875e+00) (5, -5.04666209220886230469e-01) (6, -5.62852859497070312500e+00) (0, 1.27498121261596679688e+01) (1, -5.13198375701904296875e+00) (2, -1.25488348007202148438e+01) (3, 1.22706184387207031250e+01) (4, -3.58757674694061279297e-01) (5, -2.68217861652374267578e-01) (6, -2.17677497863769531250e+00) (0, 4.36557859182357788086e-01) (1, -2.98439955711364746094e+00) (2, 1.96820521354675292969e+00) (3, 2.31834077835083007812e+00) (4, -2.52156209945678710938e+00) (5, 2.27353453636169433594e+00) (6, -3.91764163970947265625e+00) (0, 5.34218072891235351562e+00) (1, 9.38458979129791259766e-01) (2, 2.30925649404525756836e-01) (3, -2.59220886230468750000e+00) (4, 5.38049745559692382812e+00) (5, -7.36201465129852294922e-01) (6, -1.38892972469329833984e+00) (0, 2.72275900840759277344e+00) (1, -1.84776628017425537109e+00) (2, 3.49657511711120605469e+00) (3, -2.34436571598052978516e-01) (4, 2.32789325714111328125e+00) (5, -2.88959932327270507812e+00) (6, -3.08518618345260620117e-01) (0, -1.15796601772308349609e+00) (1, -2.68517684936523437500e+00) (2, 5.02635049819946289062e+00) (3, -3.71980428695678710938e+00) (4, 1.86151355504989624023e-01) (5, 2.05629086494445800781e+00) (6, -7.38524124026298522949e-02) (0, 5.18080663681030273438e+00) (1, -2.92869281768798828125e+00) (2, 4.79380798339843750000e+00) (3, 7.07396149635314941406e-01) (4, 3.31019848585128784180e-01) (5, -8.50275039672851562500e-01) (6, -1.72214046120643615723e-01) (0, 2.55942749977111816406e+00) (1, -5.91630506515502929688e+00) (2, 3.82236456871032714844e+00) (3, 1.26680259704589843750e+01) (4, 1.20100474357604980469e+00) (5, -2.26767444610595703125e+00) (6, -2.18381738662719726562e+00) (0, 1.66872954368591308594e+00) (1, -2.30374312400817871094e+00) (2, 2.90298938751220703125e+00) (3, 4.40412193536758422852e-01) (4, 2.65835189819335937500e+00) (5, -3.25313830375671386719e+00) (6, 2.66122341156005859375e-01) (0, 5.83669424057006835938e-01) (1, -1.39004242420196533203e+00) (2, 2.03992629051208496094e+00) (3, 5.81879091262817382812e+00) (4, 2.27885675430297851562e+00) (5, -2.33189892768859863281e+00) (6, -4.63756656646728515625e+00) (7, 8.02198028564453125000e+00) (8, 4.52324056625366210938e+00) (9, -6.43351459503173828125e+00) (10, -1.65492737293243408203e+00) (11, 8.63102626800537109375e+00) (12, -7.72042179107666015625e+00) (13, 8.66189193725585937500e+00) (14, -6.40098381042480468750e+00) (15, 3.34588503837585449219e+00) (16, -8.04154491424560546875e+00) (17, -2.52277517318725585938e+00) (18, 7.76150655746459960938e+00) (7, -8.90329837799072265625e+00) (8, -5.18516778945922851562e-01) (9, -5.25581169128417968750e+00) (10, 1.28523302078247070312e+00) (11, -1.46156299114227294922e+00) (12, -3.80507707595825195312e+00) (13, 2.17022504657506942749e-02) (14, 5.38774394989013671875e+00) (15, 5.14575338363647460938e+00) (16, -3.14489746093750000000e+00) (17, 7.61685594916343688965e-02) (18, 1.09715670347213745117e-01) (7, 6.30552721023559570312e+00) (8, 5.85694932937622070312e+00) (9, 8.29768538475036621094e-01) (10, 5.83271741867065429688e+00) (11, -4.52177715301513671875e+00) (12, -1.34363118559122085571e-02) (13, -2.59792208671569824219e+00) (14, -4.53915309906005859375e+00) (15, -1.56144225597381591797e+00) (16, 1.31401538848876953125e+00) (17, 6.66861486434936523438e+00) (18, -1.90876126289367675781e-01) (7, -4.20062017440795898438e+00) (8, -5.94288492202758789062e+00) (9, 6.07711839675903320312e+00) (10, -1.95903599262237548828e+00) (11, 4.37403583526611328125e+00) (12, -2.67407703399658203125e+00) (13, 2.24156928062438964844e+00) (14, -3.27085293829441070557e-02) (15, 4.31032514572143554688e+00) (16, -1.72709631919860839844e+00) (17, -4.81839990615844726562e+00) (18, -3.96500897407531738281e+00) 
